#include "neural_network.h"
#include "nn_helpers.h"

const float weights_fc0[] = {
0.08193237334489822, 0.11770745366811752, -0.030746830627322197, -0.2838692367076874, -0.4020051956176758, 0.04250694438815117, 0.16643638908863068, 0.2192300409078598, 0.013759803026914597, -0.24936240911483765, -0.7762184739112854, 0.7897613644599915,
-0.16246215999126434, -0.29654887318611145, 0.06510480493307114, 0.061259739100933075, -0.056919436901807785, 0.145441472530365, -0.019935429096221924, -0.26401469111442566, -0.10046468675136566, 1.069347858428955, 1.8342822790145874, -0.28352871537208557,
0.09733044356107712, -0.4493425488471985, -0.5992516875267029, -0.11193226277828217, 0.005604044999927282, -0.15277409553527832, 0.362990140914917, -0.37531954050064087, 0.4611438512802124, -0.1600484549999237, -0.7252724170684814, 0.528229832649231,
-0.14470385015010834, 0.16972707211971283, -0.16901543736457825, -0.023045789450407028, 0.0996629148721695, 0.2841416001319885, -0.07498452067375183, 0.31730055809020996, -0.015730736777186394, 1.014102816581726, -1.165060043334961, -0.28141456842422485,
0.10367481410503387, -0.12191790342330933, -0.18448424339294434, -0.004356308840215206, 0.32782992720603943, 0.20270565152168274, 0.16235873103141785, -0.29120659828186035, 0.135823592543602, 0.033377762883901596, -0.18773947656154633, 0.5918084979057312,
-0.06941735744476318, -0.009758759289979935, -0.17901183664798737, -0.9256691336631775, -0.9147605895996094, -0.0024137338623404503, 0.08946389704942703, -0.23941479623317719, 0.16698777675628662, -0.1605261117219925, -0.058472465723752975, 0.22184185683727264,
-0.1627967357635498, 0.04727728292346001, 0.48605358600616455, -0.17129577696323395, 0.14405883848667145, -0.04353990778326988, 0.6006407141685486, -0.7591403722763062, 0.09478972852230072, 0.3616783320903778, 0.24406825006008148, 0.1983281970024109,
0.187590092420578, 0.23297923803329468, -0.227054163813591, -0.15330402553081512, 0.4859890341758728, -0.7983958125114441, 0.21014845371246338, 0.17000393569469452, 0.12361404299736023, -0.05616261810064316, -0.11728163808584213, 0.08931507170200348,
-0.1448872834444046, -0.0113660404458642, -0.27540087699890137, -0.45332425832748413, -0.05985143408179283, 0.31671980023384094, 0.44379788637161255, 0.011851068586111069, -0.044146932661533356, -0.5116913914680481, -0.1612645983695984, -0.07689491659402847,
0.3061660826206207, 0.1933949887752533, -0.15616101026535034, -0.6381279826164246, 0.9952002763748169, -0.03858194127678871, 0.6314762830734253, 0.24276556074619293, -0.2531681954860687, -0.095823734998703, 0.0162502471357584, 0.14569737017154694,
-0.2965332865715027, -0.1440846025943756, -0.12434569746255875, 0.376590371131897, -0.6208083629608154, -0.13051794469356537, 0.43346190452575684, 0.44548705220222473, 0.45272043347358704, 0.31470268964767456, 0.259456992149353, -0.08768566697835922,
-0.5820391774177551, -0.26555904746055603, -0.3522442579269409, 0.07357652485370636, 0.1745290607213974, 0.17221808433532715, 0.5919827222824097, 0.08253395557403564, -0.01396472379565239, -0.8545047640800476, 0.0740906223654747, -0.6826987862586975,
-0.09553906321525574, -0.3452891707420349, 0.06918510049581528, 0.7126217484474182, 0.5446793437004089, 0.0415378175675869, -0.011512271128594875, 0.48181647062301636, 0.17459486424922943, 0.01749594137072563, 0.06068258732557297, 0.36571434140205383,
0.29593726992607117, 0.1034686416387558, 0.3233782947063446, -0.1264653503894806, 0.1357765793800354, 0.23762865364551544, -0.09246140718460083, -0.020562494173645973, -0.23592926561832428, 0.051776859909296036, 0.203886479139328, -0.5757654905319214,
-0.05198667570948601, -0.5714648962020874, 0.09720729291439056, 0.02670452371239662, 0.15798449516296387, -0.33469510078430176, -0.040902115404605865, 0.3579323887825012, 0.13077552616596222, 0.40267708897590637, -0.23941218852996826, 0.2981950640678406,
-0.1139419674873352, 0.199324831366539, -0.038238395005464554, 0.05192263051867485, -0.06650041788816452, 0.08000949770212173, 0.013189165852963924, 0.0008453081245534122, -0.1245616152882576, 0.7016311883926392, 0.44725263118743896, 0.6302940845489502,
0.6518576741218567, 0.5739907622337341, 0.15534858405590057, -0.411643922328949, 0.05335493013262749, 0.12012891471385956, -0.08693248778581619, 0.7121643424034119, 0.1818133443593979, -0.262222021818161, -0.5084740519523621, -0.23581507802009583,
-0.38053974509239197, 0.7402287125587463, 0.27240249514579773, -0.25091424584388733, -0.25077393651008606, -0.060357678681612015, -0.5206674933433533, -0.05525102838873863, 0.018629567697644234, -0.05314319208264351, 0.04106196388602257, -0.8374413847923279,
-0.019256100058555603, 0.14871621131896973, -0.14078167080879211, 1.0221959352493286, 0.4806737005710602, 0.18160651624202728, 0.16572532057762146, -0.23291423916816711, 0.09171922504901886, -0.18460465967655182, -0.10381314158439636, -0.05494631081819534,
0.05819445103406906, -0.3403637111186981, 0.0009856837568804622, 1.048397183418274, 0.9598074555397034, -0.0615486279129982, -0.15001735091209412, -0.00838279165327549, -0.16287384927272797, -0.05185159668326378, 0.2737899422645569, 0.011808102019131184,
-0.006475003436207771, 0.0013190691825002432, -0.5406039357185364, 0.02629631571471691, -0.09638090431690216, 0.23300357162952423, 0.04689248278737068, -0.03643570467829704, 0.008693959563970566, -0.863105297088623, -0.13576290011405945, 0.2979169487953186,
-0.24039682745933533, 0.26806873083114624, 0.33879461884498596, 0.02124682627618313, -0.08574492484331131, 0.22971650958061218, 0.012114270590245724, 0.09802607446908951, -0.1814327985048294, 0.5632681846618652, -0.6870426535606384, -1.1018568277359009,
-0.40856271982192993, 0.4106466472148895, 0.5974767804145813, 0.0033554371912032366, 0.4763290584087372, -0.48615652322769165, 0.21550999581813812, -0.01069301925599575, 0.22890441119670868, -0.20255519449710846, 0.3525318503379822, -0.1362907588481903,
-0.05116375908255577, 0.23021632432937622, 0.21925854682922363, 0.009506811387836933, -0.1266142725944519, 0.08671435713768005, -0.05788338929414749, -0.15453766286373138, -0.9754763841629028, 0.26467427611351013, 0.6970043182373047, -0.0461910106241703,
0.1072448194026947, -0.3882606327533722, 0.1847774088382721, 1.0408039093017578, -0.7493221163749695, 0.02864471822977066, 0.044400427490472794, 0.035330649465322495, -0.2798193097114563, 0.17989280819892883, 0.1419888287782669, 0.11335588991641998,
-0.12031565606594086, -0.09400526434183121, -1.365865707397461, 0.3084092438220978, 0.11759494990110397, -0.29205331206321716, 0.029203204438090324, -0.2966909110546112, 0.7362927198410034, -0.43422019481658936, 0.662965714931488, 0.9426743984222412,
0.4860444664955139, -0.6025292873382568, -0.02906966209411621, 0.154241144657135, -0.05568670853972435, -0.032351355999708176, -0.25373226404190063, -0.7406457662582397, 0.03870860114693642, -0.004333598539233208, 0.1792111098766327, -0.6403290629386902,
0.382021427154541, -0.07547660917043686, -0.22092074155807495, 0.1356169432401657, 0.17057475447654724, 0.5694021582603455, 0.22257603704929352, 0.01655290089547634, -0.5289047360420227, -0.21998313069343567, 0.31136995553970337, 0.5624393820762634,
-0.9147685766220093, -0.32904186844825745, -0.3718646764755249, -0.07004489749670029, -0.22764377295970917, -0.31825771927833557, -0.8698229789733887, 0.17206420004367828, 0.842117965221405, 0.6218448877334595, 0.005871847737580538, 0.04586248844861984,
0.8110870718955994, -0.3672521114349365, 0.9159732460975647, 0.3528643846511841, 0.3743538558483124, 0.17464476823806763, 0.7276465892791748, -0.2793818414211273, 0.5178375244140625, -1.1532100439071655, -0.13074736297130585, -0.19379965960979462,
-0.19764074683189392, -0.06482552736997604, 0.7842788696289062, 0.14221788942813873, 0.17041511833667755, 0.32766208052635193, -0.5111144781112671, 0.04806505888700485, 0.5186828970909119, 1.243915319442749, -0.1882941871881485, -0.04937189072370529,
-0.23427942395210266, 0.5862111449241638, -0.6488556265830994, 0.12531353533267975, -0.04911423847079277, 0.14690589904785156, -0.36093220114707947, 0.05889659747481346, 0.38493603467941284, -0.14535123109817505, -0.26415976881980896, 0.11372680217027664
};

const float biases_fc0[] = {
0.030191024765372276, -0.497220903635025, -1.099811315536499, -0.5902547836303711, -0.1284627616405487, -0.008863233029842377, 0.32760387659072876, -0.2505720257759094, -0.08479969948530197, 0.4547446668148041, 0.031168213114142418, -0.5419834852218628, 0.38617733120918274, -0.4726215898990631, 0.5943586230278015, -0.3257344663143158, 0.07094353437423706, -0.2335551679134369, 0.3650497496128082, -0.1101238951086998, -0.28168708086013794, -0.2630629241466522, -0.7249335646629333, 0.5187162160873413, 0.05216347798705101, -1.207409381866455, -0.29402992129325867, -0.2555890679359436, -0.99294513463974, -0.4504542648792267, -0.549141526222229, 0.06354594230651855
};

const float weights_fc1[] = {
0.22425387799739838, -0.20185475051403046, 0.2564762234687805, 0.07523954659700394, 0.113962821662426, -0.1395673006772995, 0.10358607023954391, -0.3273361623287201, 0.002073480747640133, -0.05671839043498039, 0.0025628258008509874, -0.08569948375225067, 0.2886931002140045, -0.08595765382051468, 0.10736788064241409, -0.13461042940616608, -0.2826143503189087, -0.07242773473262787, -0.07002029567956924, 0.4454597532749176, 0.1657453179359436, 0.04034598171710968, 0.02659483812749386, -0.32574641704559326, 0.15414424240589142, -0.22561486065387726, -0.19092175364494324, 0.22238682210445404, 0.01488693617284298, 0.06626632809638977, 0.20733070373535156, -0.19826102256774902,
-0.22852002084255219, -0.21244597434997559, -0.09639175981283188, -0.08907495439052582, 0.14625370502471924, -0.029503997415304184, 0.2015628069639206, 0.08761496841907501, 0.1386735439300537, 0.3187171518802643, -0.18718141317367554, -0.47858089208602905, 0.32316258549690247, 0.10375255346298218, -0.020800525322556496, -0.16885429620742798, 0.29980453848838806, 0.0932241827249527, 0.1161164939403534, 0.4559743404388428, -0.17234697937965393, -0.3202511966228485, -0.143823504447937, -0.021368060261011124, -0.30542266368865967, -0.06999991089105606, 0.1227920651435852, -0.12224999070167542, 0.032766059041023254, 0.13611014187335968, 0.18458786606788635, -0.1469760239124298,
0.24482548236846924, 0.22709593176841736, 0.30061230063438416, -0.20134733617305756, -0.42482346296310425, 0.0816371962428093, -0.08348889648914337, -0.11662899702787399, 0.09188617765903473, -0.34021082520484924, -0.3403399884700775, 0.015706926584243774, -0.39980167150497437, 0.06028909236192703, 0.1123158186674118, 0.09593804180622101, -0.0034272547345608473, 0.1543167680501938, -0.2218569964170456, -0.2938383221626282, -0.1479751318693161, 0.5262171626091003, -0.1567843109369278, -0.22500938177108765, -0.052039969712495804, -0.14837516844272614, -0.2258092314004898, -0.3340933620929718, -0.11947052925825119, 0.3027316927909851, -0.019912846386432648, -0.38748082518577576,
0.15467052161693573, 0.027828985825181007, 0.05697561800479889, 0.24255608022212982, 0.4191184341907501, -0.2011694759130478, -0.07720497250556946, 0.15199875831604004, 0.22582095861434937, 0.22051911056041718, -0.5848476886749268, -0.2552202045917511, 0.03871465474367142, 0.014601865783333778, -0.12243937700986862, -0.31026726961135864, 0.10869237780570984, -0.04717843234539032, -0.10124188661575317, -0.332733690738678, -0.27907508611679077, 0.09802410006523132, 0.27494773268699646, -0.05091539025306702, -1.2781860828399658, 0.2343500405550003, -0.1750694364309311, -0.17514668405056, 0.11239180713891983, 0.21177926659584045, -0.06538069248199463, -0.17110855877399445,
0.005717324558645487, -0.07135726511478424, 0.1963765174150467, 0.40787288546562195, 0.23715172708034515, 0.17648112773895264, -0.26624590158462524, -0.1671723574399948, 0.1620442122220993, -0.061865851283073425, -0.14634810388088226, 0.5316354632377625, -0.002581138163805008, 0.47810325026512146, -0.9021015763282776, 0.022564979270100594, 0.044023673981428146, 0.2358352094888687, -0.1609850376844406, 0.2506752014160156, -0.039107996970415115, -0.5859712958335876, 0.2294350117444992, -0.614732563495636, -0.04325517266988754, 0.20391517877578735, -0.1873174011707306, 0.26735201478004456, 0.2882545590400696, 0.29414117336273193, 0.0731189176440239, 0.10604698210954666,
0.16109007596969604, -0.4111665189266205, -0.0961492508649826, -0.04193921014666557, 0.142958402633667, 0.08064304292201996, -0.32744666934013367, -0.23244214057922363, 0.5064892172813416, 0.011638735421001911, 0.10086961835622787, 0.45646485686302185, 0.08484475314617157, -0.2687089741230011, -0.04867515712976456, -0.35559409856796265, -0.11199752986431122, 0.17063121497631073, 0.2892815172672272, -0.15303674340248108, 0.023428309708833694, -0.11855363845825195, 0.017002392560243607, -0.2793455123901367, -0.1704806685447693, 0.08817960321903229, 0.04516800865530968, 0.025348961353302002, 0.14356008172035217, -0.09263402968645096, -0.2140323966741562, 0.15685279667377472,
-0.36175939440727234, -0.7355697154998779, -0.5058760643005371, -0.9593788981437683, 0.1532316952943802, 0.06378529965877533, 0.014646113850176334, -0.24524980783462524, -0.041010234504938126, -0.2219245582818985, -0.2037794142961502, -0.15735356509685516, -0.134139284491539, 0.2383059561252594, -0.30840635299682617, -0.2948455512523651, -0.811883270740509, -0.5123266577720642, -0.13463690876960754, 0.11843077838420868, -0.13561145961284637, 0.1871405690908432, 0.27530112862586975, 0.08690807223320007, -0.10448461771011353, -0.2805251181125641, 0.005260751117020845, 0.1737881749868393, -0.21845558285713196, -0.29543358087539673, -0.8944222331047058, -0.18672549724578857,
0.005677852313965559, 0.4315824508666992, -0.09332551807165146, 0.1508205384016037, 0.47542282938957214, -0.0754832997918129, -0.13647215068340302, 0.02809317223727703, -0.47453421354293823, -0.2015053778886795, -0.30441126227378845, 0.23252716660499573, -0.20427663624286652, -0.054104868322610855, -0.18165579438209534, 0.32892051339149475, 0.09880496561527252, -0.005822044797241688, -0.40083640813827515, -0.04049108177423477, -0.2615329623222351, -0.06277043372392654, 0.4869288206100464, -0.5397030711174011, 0.0032726447097957134, 0.08461905270814896, 0.028021404519677162, -0.23137706518173218, -0.06962233781814575, 0.04979906603693962, 0.38669708371162415, 0.09429927915334702,
0.1847924143075943, 0.08923126757144928, 0.0011055219219997525, 0.010465392842888832, -0.06925678998231888, 0.31967276334762573, 0.21440160274505615, 0.15108714997768402, 0.11323816329240799, 0.2318648397922516, -0.2666161060333252, -0.006472540553659201, -0.5973461866378784, 0.0830836221575737, -0.27279695868492126, -0.4509144127368927, -0.18494823575019836, 0.15341728925704956, -0.27690431475639343, -0.31794464588165283, -0.3444312512874603, 0.1338791698217392, 0.16445142030715942, 0.007835782133042812, -0.3358747363090515, 0.1838318109512329, 0.07791054993867874, -0.10883591324090958, 0.005474443547427654, -0.21556012332439423, 0.13619878888130188, -0.05434885993599892,
0.21041196584701538, -0.12244454771280289, -0.1692138910293579, -0.06736487150192261, -0.45070329308509827, 0.23866114020347595, 0.09947822988033295, 0.16217447817325592, -0.029912849888205528, -0.10297184437513351, 0.3382483720779419, -0.13220158219337463, -0.3619968593120575, 0.01831062138080597, 0.17507965862751007, -0.3649304211139679, 0.1004873663187027, -0.04469125717878342, -0.6643155813217163, -0.4276027977466583, -0.2007017284631729, -0.21667252480983734, 0.27973756194114685, -0.07195210456848145, -0.01908726803958416, 0.2886829972267151, 0.031480610370635986, -0.3862466514110565, 0.010802390053868294, -0.09101943671703339, 0.10978605598211288, -0.00931659247726202,
-0.0623004324734211, 0.011019587516784668, 0.23862965404987335, -0.03422907739877701, 0.06863081455230713, -0.3571564555168152, -0.3417814373970032, 0.02964330092072487, -0.19299933314323425, -0.08178136497735977, -0.3072167932987213, -0.13466492295265198, -0.1718910038471222, 0.15160571038722992, 0.06449024379253387, 0.0003591421409510076, 0.22609207034111023, 0.18125009536743164, 0.046722661703825, 0.4945470988750458, 0.04242695868015289, -0.4735371470451355, 0.05798273906111717, 0.018249008804559708, 0.016009604558348656, 0.4180828630924225, -0.1442231833934784, -0.636986255645752, -0.11346637457609177, -0.10987263917922974, -0.17114949226379395, -0.45423293113708496,
-0.11419985443353653, -0.20874391496181488, -0.2732211947441101, -0.3263097405433655, -0.0016666786978021264, -0.04491933062672615, 0.222774475812912, 0.06025246903300285, -0.11058799922466278, -0.25027239322662354, -0.26440945267677307, -0.20764532685279846, -0.2960124909877777, 0.25302553176879883, 0.09730205684900284, -0.2960202991962433, -0.08422576636075974, 0.10054843127727509, -0.0034126669634133577, 0.036343373358249664, -0.4416361153125763, 0.15734224021434784, -0.3549661934375763, 0.2896004617214203, -0.029312588274478912, -0.39687785506248474, 0.06585952639579773, -0.16831623017787933, 0.18105414509773254, -0.2734594941139221, 0.08472581952810287, 0.4855878949165344,
-0.37004798650741577, -0.7035756707191467, -0.553880512714386, -0.21906372904777527, -0.2787552773952484, -0.22043995559215546, 0.0882529765367508, 0.05857343226671219, -0.22056251764297485, 0.04935244470834732, 0.059522707015275955, -0.34052103757858276, 0.43946725130081177, 0.3844411373138428, 0.1956813782453537, -0.5778897404670715, -0.243363618850708, -0.08497429639101028, -0.28659844398498535, -0.3008243143558502, -0.484981894493103, -0.066360704600811, -0.3275105655193329, 0.19134986400604248, 0.06616856157779694, -0.6761946082115173, -0.09491720795631409, 0.4027674198150635, -0.23322106897830963, -0.4700625240802765, -0.019408972933888435, -0.13414452970027924,
-0.023699721321463585, 0.06650858372449875, -0.16600695252418518, -0.02956419810652733, -0.04773259907960892, 0.039096441119909286, -0.23408015072345734, -0.2765809893608093, 0.2694607973098755, -0.85186767578125, -0.029726305976510048, 0.07650144398212433, -0.01916559413075447, 0.00403376342728734, -0.04092279076576233, 0.23177829384803772, -0.1033359095454216, 0.12737852334976196, 0.10823141783475876, -0.10670386999845505, 0.1997426152229309, 0.1038680300116539, -0.05658518895506859, 0.33519312739372253, 0.6826989650726318, -0.11895031481981277, 0.005950805731117725, 0.3822565972805023, -0.004948527552187443, 0.07890766859054565, 0.1796824336051941, -0.26643654704093933,
-0.0020558799151331186, -0.5964105725288391, -0.5756415724754333, -0.5952040553092957, -0.3603109121322632, -0.5337597727775574, 0.1905220001935959, -0.3216184377670288, -0.019506730139255524, 0.1412738859653473, -0.11038368940353394, -0.7119573354721069, 0.0858539566397667, -0.29739096760749817, 0.2944703996181488, -0.5630244612693787, -0.2047174572944641, -0.1827557533979416, -0.15022294223308563, -0.25479403138160706, -0.15482525527477264, -0.3045003414154053, -0.6646435856819153, 0.15088145434856415, -0.13401496410369873, -0.642131507396698, -0.2178318053483963, 0.2970384657382965, -0.30722206830978394, -0.6956976056098938, -0.44427490234375, -0.3054105341434479,
-0.14900395274162292, -0.2747204005718231, -0.21529442071914673, -0.32260289788246155, 0.2761298716068268, 0.08405744284391403, 0.10604267567396164, 0.3283809721469879, -0.29302746057510376, -0.15783452987670898, -0.09993025660514832, -0.21889746189117432, 0.3277004063129425, 0.21292270720005035, 0.2530129849910736, 0.036051101982593536, 0.23534363508224487, -0.13676221668720245, -0.023607490584254265, -0.4900493621826172, 0.03555992990732193, -0.05286315083503723, -0.02977788634598255, 0.161465123295784, 0.05810582637786865, -0.5223692655563354, -0.28824588656425476, 0.22117356956005096, -0.040164534002542496, -0.10223066061735153, -0.012698267586529255, 0.18086208403110504,
-0.2055230438709259, 0.24506203830242157, -0.2137257605791092, -0.000635998381767422, 0.15972931683063507, 0.2601945102214813, 0.07869178056716919, 0.21504810452461243, 0.17655977606773376, -0.4099867343902588, 0.2515465319156647, 0.2627839744091034, -0.1460738331079483, 0.3393884003162384, -0.4086323082447052, 0.2401546984910965, -0.2564166784286499, -0.6720438003540039, -0.40948906540870667, 0.057583969086408615, 0.25804755091667175, -0.197869211435318, 0.18593914806842804, -0.06014568358659744, -0.13807512819766998, 0.5564960837364197, 0.11914993077516556, -0.10332535952329636, -0.18771611154079437, -0.00271917087957263, 0.047440074384212494, 0.03311542049050331,
0.34072956442832947, 0.6854427456855774, 0.1444828361272812, 0.2752569019794464, 0.06379354000091553, -0.25013309717178345, -0.4964722990989685, -0.13695164024829865, -0.06868258863687515, -0.2191576361656189, -0.3986813426017761, 0.004861817695200443, -0.08429296314716339, -0.07806137949228287, -0.1708095520734787, 0.3541400134563446, -0.1396418660879135, 0.44784870743751526, -0.4810490310192108, 0.09191019088029861, 0.024698931723833084, -0.2346591204404831, 0.033707693219184875, -0.04427681490778923, 0.031001701951026917, 0.5375958681106567, -0.4675326645374298, -0.4776307940483093, -0.3227328062057495, 0.06301745772361755, 0.26669177412986755, -0.291593998670578,
0.07031102478504181, 0.6590772271156311, 0.777066707611084, 0.8231308460235596, 0.12071145325899124, -0.06236228719353676, -0.6376554369926453, 0.5253095626831055, 0.10563546419143677, -0.22336313128471375, 0.2605016529560089, 0.7389078736305237, -0.6310311555862427, 0.34147530794143677, -0.4204196035861969, 0.6690130233764648, 0.19447413086891174, 0.030613742768764496, -0.20390459895133972, 0.07237614691257477, 0.2465408742427826, -0.03699899837374687, 0.5409536361694336, -0.7390169501304626, -0.08162106573581696, 0.9593867063522339, 0.43522968888282776, 0.2626734972000122, 0.42645204067230225, 0.5384327173233032, 0.5923239588737488, 0.3656275272369385,
-0.3889409303665161, -0.3983129858970642, -0.6541087031364441, -0.5967622995376587, -0.029744811356067657, 0.08000549674034119, 0.00556063512340188, -0.12403175234794617, 0.08375857770442963, -0.1478510946035385, 0.039057113230228424, -0.23096157610416412, 0.17902405560016632, 0.43267694115638733, -0.02909027226269245, -0.473540723323822, -0.3448718190193176, -0.6179754137992859, -0.16971071064472198, 0.07443636655807495, -0.30476757884025574, 0.0046411012299358845, -0.05333384498953819, 0.2563166320323944, -0.08741167932748795, -0.0019878882449120283, -0.0553496815264225, 0.3676552474498749, -0.6382200121879578, -0.16293351352214813, -0.5557751655578613, -0.04978106915950775,
-0.046565890312194824, 0.10054637491703033, -0.06331649422645569, 0.2533618211746216, -0.004667943809181452, 0.1320640593767166, 0.10757522284984589, 0.049006540328264236, -0.144547700881958, 0.00965854711830616, 0.4739397168159485, 0.24099768698215485, -0.18803264200687408, 0.22830818593502045, -0.2569429874420166, 0.25832265615463257, 0.0707649514079094, -0.02187426947057247, 0.0047846767120063305, -0.2716386318206787, 0.06250967085361481, 0.0911378264427185, 0.3247326612472534, -0.04228627309203148, -0.23004937171936035, -0.06641823053359985, -0.2027011215686798, -0.2087949961423874, 0.059172630310058594, 0.2677869200706482, 0.05698457360267639, -0.07415687292814255,
0.05895494669675827, -0.3915681838989258, -0.49369016289711, -0.7259693145751953, -0.31734007596969604, 0.0033033627551048994, 0.40380704402923584, -0.2430352419614792, -0.4920172095298767, -0.1826925277709961, -0.03881078213453293, -0.2720809280872345, 0.20496001839637756, 0.06529314070940018, 0.19573631882667542, -0.43357789516448975, -0.016619382426142693, -0.41153961420059204, 0.13687783479690552, -0.13652914762496948, -0.614671528339386, 0.045274894684553146, -0.26339060068130493, -0.07953773438930511, -0.033703677356243134, -0.39915356040000916, 0.04617755115032196, 0.31491726636886597, -0.28052589297294617, -0.5102226138114929, -0.055317334830760956, 0.25989770889282227,
0.2408161759376526, -0.13641108572483063, -0.16011527180671692, -0.22138667106628418, -0.14741955697536469, -0.029826059937477112, 0.23682375252246857, 0.30859604477882385, 0.05497987940907478, -0.2612135410308838, -0.19426506757736206, -0.04062039777636528, -0.28024280071258545, -0.32627373933792114, 0.03861561045050621, 0.19527430832386017, -0.2912057340145111, -0.09160583466291428, 0.10285301506519318, 0.07635403424501419, 0.09843315184116364, -0.10233425348997116, 0.06323491781949997, 0.13738220930099487, 0.0008251910330727696, 0.038623224943876266, -0.4868696331977844, 0.006761065684258938, -0.2484331876039505, 0.06729669868946075, -0.05623242259025574, -0.4383049011230469,
0.13245372474193573, 0.31672191619873047, 0.3733840584754944, 0.3126700818538666, 0.15914343297481537, 0.09930634498596191, -0.254056841135025, 0.3220163583755493, -0.028846697881817818, -0.28588855266571045, 0.12413568794727325, 0.4069013297557831, -0.12286856025457382, 0.07373584061861038, -0.05945780128240585, 0.3001740276813507, 0.21540199220180511, 0.19170346856117249, 0.28752782940864563, -0.1910901665687561, 0.1230412945151329, 0.2303578406572342, 0.26714634895324707, -0.22546005249023438, -0.10298629850149155, 0.197757750749588, 0.21393544971942902, -0.026845518499612808, 0.2999732196331024, 0.39984726905822754, 0.3259364664554596, 0.11306964606046677,
0.11939974129199982, -0.478803426027298, -0.6161139607429504, -0.4020066559314728, -0.7918059229850769, -0.09578157961368561, 0.21063782274723053, -0.15439771115779877, -0.21079368889331818, -0.3174801468849182, 0.06452573090791702, -0.4791383743286133, -0.050704970955848694, -0.10697989165782928, 0.016939008608460426, -0.03526021167635918, -0.37019971013069153, 0.0037483100313693285, 0.089213065803051, -0.08156268298625946, -0.09357793629169464, -0.008148823864758015, 0.07136109471321106, 0.07871011644601822, 0.09510505944490433, -0.09372458606958389, -0.0406976193189621, -0.41453099250793457, 0.007410713937133551, -0.2726663649082184, -0.12929633259773254, -0.5150679349899292,
-0.5769426226615906, 0.045439135283231735, 0.17609381675720215, 0.04826969653367996, -0.31950414180755615, -0.40980643033981323, -0.6465497016906738, 0.3354618549346924, -0.2883662283420563, -0.3819659352302551, 0.20571915805339813, 0.30991116166114807, -0.16516639292240143, 0.2516483962535858, 0.0025189919397234917, 0.19369617104530334, -0.09938230365514755, -0.04078518971800804, -0.4770708382129669, 0.2089417576789856, -0.125220388174057, -0.2532046139240265, 0.02257268689572811, -0.1185116097331047, 0.015109999105334282, -0.08109316229820251, 0.2971239387989044, -0.2772578001022339, -0.1448935866355896, -0.04220501706004143, -0.016109351068735123, -0.524696946144104,
-0.17512477934360504, -0.1428171992301941, -0.16518259048461914, 0.09458375722169876, -0.1487366259098053, 0.1100560873746872, -0.07498140633106232, -0.13141225278377533, -0.024161534383893013, -0.031808894127607346, 0.4539869725704193, -0.5066480040550232, 0.3913961946964264, -0.3466131389141083, 0.18413646519184113, -0.021432502195239067, 0.003068688092753291, 0.16266031563282013, 0.14563970267772675, 0.5032839775085449, 0.17990271747112274, -0.25624915957450867, -0.19681090116500854, -0.1455768495798111, 0.5745213627815247, -0.12117379158735275, -0.4597848951816559, 0.09322388470172882, -0.003429918549954891, -0.15491178631782532, -0.08725250512361526, -0.1853291392326355,
-0.13216088712215424, -0.7027550339698792, -0.3558026850223541, -0.8773850202560425, 0.07649179548025131, -0.2830027639865875, -0.06547632813453674, -0.04239407926797867, 0.01924111694097519, 0.04981641471385956, 0.3816030025482178, -0.55723637342453, 0.03429485112428665, 0.2292909175157547, 0.3218158483505249, -0.2289571613073349, -0.1496216058731079, -0.4830161929130554, -0.05409726873040199, -0.2430506944656372, -0.3718016445636749, 0.2841332256793976, 0.13759644329547882, 0.0028670327737927437, -0.13281603157520294, -0.9154105186462402, -0.3239682912826538, 0.16016797721385956, -0.4270821809768677, -0.26385626196861267, -0.4594348073005676, -0.16455025970935822,
-0.10584180057048798, 0.19929488003253937, 0.07444179803133011, -0.34506699442863464, 0.24772317707538605, -0.04706977680325508, -0.008031206205487251, -0.019631817936897278, 0.05615952983498573, -0.03736286237835884, 0.251395583152771, -0.22471396625041962, -0.06349857151508331, -0.7378202676773071, -0.17311233282089233, -0.21838340163230896, 0.017604226246476173, 0.09978944063186646, -0.022297881543636322, 0.32148483395576477, -0.014783784747123718, -0.08118535578250885, -0.1920301914215088, -0.5629295706748962, -0.09302941709756851, -0.2489556074142456, 0.6017452478408813, -0.13362456858158112, 0.0003561275079846382, -0.12750962376594543, -0.22318090498447418, -0.07856101542711258,
-0.2655565142631531, 0.15405529737472534, 0.08316626399755478, -0.08586543798446655, -0.0034611474256962538, 0.13806916773319244, 0.08682400733232498, 0.3342997133731842, -0.25097817182540894, 0.09457698464393616, -0.12187150120735168, -0.040634188801050186, 5.8289297157898545e-05, -0.11871707439422607, -0.2011730670928955, -0.3168238401412964, -0.023353656753897667, -0.23750805854797363, 0.06796181201934814, 0.37212079763412476, -0.16626231372356415, -0.07379020750522614, 0.10285577923059464, -0.24435870349407196, -0.05450170114636421, 0.16069792211055756, 0.5202263593673706, -0.23380492627620697, -0.20346757769584656, -0.19963566958904266, -0.21055005490779877, 0.013682804070413113,
0.01025905180722475, 0.9056059718132019, 1.1002310514450073, 0.7807745933532715, 0.41607582569122314, 0.5266035795211792, -0.9268104434013367, 1.0604764223098755, 0.2785245180130005, -0.17461073398590088, -0.12021242082118988, 0.6598427891731262, -0.1629992574453354, -0.1333235204219818, -0.4025532007217407, 0.6998128890991211, 0.16917765140533447, 0.07617165893316269, -0.06685017049312592, 0.18782664835453033, 0.5156091451644897, 0.18822316825389862, 0.35207679867744446, 0.016134900972247124, 0.2062055617570877, 0.8917744755744934, 0.5495651960372925, 0.21148914098739624, 0.2460191696882248, 0.22011002898216248, 0.38797301054000854, 0.6955285668373108,
0.21337392926216125, 0.11601638048887253, -0.06888817250728607, -0.11409872770309448, -0.13425014913082123, -0.16620787978172302, -0.2603687644004822, -0.020595477893948555, 0.19941765069961548, 0.0137309730052948, -0.7222874760627747, 0.013122017495334148, -0.07890412956476212, -0.25056514143943787, -0.021481027826666832, -0.19618873298168182, -0.10389377176761627, 0.23464849591255188, 0.08311878889799118, 0.34236881136894226, 0.141172394156456, -0.0077128903940320015, -0.3589608073234558, 0.011416217312216759, -0.2280896008014679, -0.23600268363952637, -0.08166384696960449, 0.008191905915737152, 0.0519753135740757, -0.3068763315677643, -0.10903356969356537, 0.004709022119641304
};

const float biases_fc1[] = {
-0.10893867164850235, 0.10523439198732376, -0.3256348669528961, -0.2130841314792633, -0.4403015077114105, 0.09282684326171875, -0.5700907707214355, -0.5109105706214905, 0.059092745184898376, -0.07256480306386948, 0.22212748229503632, -0.01594797521829605, -0.057395853102207184, -0.19450706243515015, 0.3941986560821533, 0.044780440628528595, -0.7841876149177551, -0.054756972938776016, -0.7723094820976257, -0.0772145614027977, 0.04944127798080444, -0.048660118132829666, -0.015815533697605133, -0.14814047515392303, 0.2250692993402481, -0.19433873891830444, 0.019758939743041992, -0.4337509870529175, -0.046789344400167465, -0.16851826012134552, -0.4079711139202118, -0.05412188172340393
};

const float weights_fc2[] = {
0.0660567581653595, 0.13880525529384613, -0.42646268010139465, -0.012258259579539299, -0.03789427503943443, 0.07782591879367828, -0.010333582758903503, 0.21359696984291077, 0.04070067033171654, -0.37252938747406006, -0.00451560178771615, -0.028902439400553703, -0.16990098357200623, 0.016588879749178886, 0.2606740891933441, -0.05257086083292961, -0.24949736893177032, -0.26051580905914307, -0.048656437546014786, 0.08406862616539001, -0.03227316215634346, -0.009760703891515732, 0.09337334334850311, 0.008624542504549026, -0.14488986134529114, 0.322384238243103, 0.18178904056549072, -0.11016573756933212, -0.01957513578236103, 0.08845159411430359, -0.011426705867052078, 0.05036453530192375,
-0.039491113275289536, -0.0512479692697525, -0.1046748012304306, -0.33408239483833313, -0.04703362658619881, -0.05677207559347153, -0.08869942277669907, -0.18333372473716736, 0.038405295461416245, -0.029603097587823868, 0.12817226350307465, 0.021528083831071854, -0.2501111328601837, -0.01271336805075407, 0.3782498240470886, 0.12015049159526825, -0.047934964299201965, -0.22689877450466156, -0.11126170307397842, -0.05183783546090126, 0.036928001791238785, 0.012524979189038277, 0.0035161217674613, 0.11966776102781296, 0.35834383964538574, 0.14880257844924927, 0.004009358584880829, -0.35143184661865234, 0.03297875076532364, 0.012542732991278172, -0.027509745210409164, -0.1698264330625534,
-0.05412512645125389, -0.16128838062286377, 0.129116952419281, -0.017968738451600075, 0.06052837148308754, 0.13249462842941284, -0.23659268021583557, 0.05702609568834305, 0.2621854841709137, -0.03480051830410957, -0.3563603162765503, -0.10993004590272903, 0.13340947031974792, 0.02472342550754547, 0.5585854053497314, 0.19674547016620636, 0.1891069859266281, -0.003467187751084566, -0.113322913646698, -0.19244426488876343, 0.023443931713700294, 0.0536421500146389, -0.06655601412057877, 0.04329872131347656, 0.034711599349975586, -0.19154299795627594, -0.02328401617705822, -0.3265298306941986, 0.22754554450511932, -0.027449430897831917, 0.002727377926930785, -0.10092856734991074,
-0.12019878625869751, 0.2590580880641937, -0.1850120574235916, -0.029441718012094498, 0.0216980017721653, 0.06557342410087585, -0.07860220968723297, 0.33667370676994324, 0.17267894744873047, 0.08397515118122101, 0.0765027403831482, -0.0921868085861206, -0.1313639134168625, -0.4297005832195282, 0.3703464865684509, -0.07405561208724976, -0.23259209096431732, -0.06597470492124557, -0.2100030481815338, -0.13430221378803253, -0.11333125084638596, -0.19661569595336914, -0.019887765869498253, -0.005642097909003496, 0.18536941707134247, -0.1536809653043747, -0.15404540300369263, 0.13557803630828857, -0.08557145297527313, 0.18463756144046783, 0.013792576268315315, -0.10972507297992706
};

const float biases_fc2[] = {
-0.030208049342036247, -0.13055630028247833, -0.19210202991962433, -0.1316373497247696
};

void nn_forward(const float* input, float* output) {
    const float* fc0_output = input;
    float fc1_output[32];
    nn_linear(weights_fc0, biases_fc0, fc0_output, 12, 32, fc1_output);
    nn_elu(fc1_output, 32);
    float fc2_output[32];
    nn_linear(weights_fc1, biases_fc1, fc1_output, 32, 32, fc2_output);
    nn_elu(fc2_output, 32);
    float* fc3_output = output;
    nn_linear(weights_fc2, biases_fc2, fc2_output, 32, 4, fc3_output);
    nn_elu(fc3_output, 4);
}